{"layers":[{"inputs":[-4.83,0.07,1,2.5,-0.09,-4.23,0.01,0,26.5],"outputs":[-0.9574158205491822,0.9999999999942847,-0.9999999964168971,-0.9999999927482514,1,1,-1,-0.9999764529789872],"biases":[0.7533955886980674,-0.6400269575658237,-0.8883960286540695,-0.9640320009729852,0.06805293105947063,-0.1531682240905745,0.0961137792184017,-0.5466069354461451],"weights":[[0.6259865293155786,0.23855333408282275,-0.009536226821897476,0.9977872610210667,-0.9571386537981836,0.31779416128851734,0.830060748125685,-0.14335646894145837],[0.8940219243246301,0.5174029676709666,0.8654233893687096,-0.920834877974003,0.884767424100426,-0.13530399882981214,0.14728805992726812,0.5031351663351851],[0.4503039819147596,-0.21276528687305607,0.4736184534955279,0.5896924412238236,0.9446997186844426,-0.6360316518423899,-0.9033170378023061,0.03246346119398158],[-0.7217911062629239,0.5146330356536595,0.3987818521277138,-0.04780337663162593,0.543422366124092,-0.7382013722551211,-0.9328253429757223,0.22702735316829603],[0.9700823752361987,-0.6542208733795452,-0.4594249307559286,0.22269136348464347,0.1566996859133507,-0.7175062405137282,0.17500764190903784,0.48902564847192753],[-0.38275069514886084,-0.5678072716831912,-0.8689229753480721,-0.7251005543383489,-0.8899598047235258,-0.03750134981864406,-0.6509514370925591,0.36662765518690765],[-0.019465702768136417,0.9718455256852607,0.06615581330528109,-0.6053791316061647,-0.41747242382040195,0.5695222397983342,0.48107134758820713,-0.7750888132487805],[0.015698227421748978,-0.6451064725022375,0.8276105763753838,-0.32989623322669903,0.10659670745049876,-0.1930182292127065,0.6682263213230071,0.37169465563580983],[0.004386015868413917,0.4340486219917241,-0.5462816069515872,-0.2785300228068266,0.8488618593047295,0.8990106292334006,-0.6399465082750835,-0.1831426891223389]]},{"inputs":[-0.9574158205491822,0.9999999999942847,-0.9999999964168971,-0.9999999927482514,1,1,-1,-0.9999764529789872],"outputs":[-0.8805974190236959,-0.9939129549510172],"biases":[0.11928510266716152,0.7422645024715844],"weights":[[-0.22535438057919954,0.9047374155460144],[-0.3717308696656576,-0.9691805909917282],[-0.6378515980229591,0.9391702745811696],[0.8516209929504535,-0.5797246337929045],[-0.9406250575630803,-0.3203495419932705],[-0.5706187367234392,-0.7486794783011086],[0.4861869000811576,0.9973748640393278],[-0.8694864947822261,-0.623144429882899]]}]}