{"layers":[{"inputs":[-0.37,0,0,0.39,0,-0.17,0.01,1,-1.27],"outputs":[-0.9911067412662776,-0.2817544899448036,0.4297719056596387,0.9770044753460913,0.8103949847868873,0.8711440920285887,0.4941374505667946,0.9596723765708768],"biases":[-0.590105600815626,0.7092471120764658,-0.35804333429935076,0.9502886052518611,0.007828253528094464,0.35684164907047045,-0.3607176651972881,0.825893274213668],"weights":[[0.8289317085149244,-0.22770799581756185,0.9288417234872086,-0.2465379848765008,0.15873747490685997,-0.2705107104179043,0.17195550946039262,-0.9414476395283331],[-0.830273709179552,0.6236170954261606,0.2124958420103389,-0.038003715173086317,-0.3016043425791426,-0.1823871596410993,-0.8757372899322458,0.1061318608367765],[0.06038021612808864,0.022922423517181212,0.3634563708155154,0.7139830426537745,-0.5966914272357284,-0.7526354047665365,-0.08232371383268156,0.4073900382779003],[-0.45896987966910174,-0.7544288367909671,0.4295492015836997,-0.8934309196215775,0.6435925760907395,0.49388576797801553,0.6811178800289324,-0.43035483881430103],[-0.527665360417346,0.015184207538219141,0.12755459868697994,0.2692834993175728,0.4522327488023481,-0.3735442228150232,0.31116672300352377,0.38778354383854996],[-0.19463470479583966,-0.33265575664950076,0.8868850745872336,-0.4747454184521902,0.8696354397894486,0.8692598936918055,0.5880748112003324,-0.4884701302277201],[0.42192420385035145,0.20949040444816447,0.35189858491170556,0.7816801796999284,0.24415818398759992,-0.05939634054806531,-0.361669580957654,0.518177923000398],[-0.8575552462589484,-0.3907796950366329,0.11235912081141963,0.6076877240996601,0.4990767838056631,-0.3227958610455679,-0.14784869085806474,0.35216454238153716],[0.6374169250185924,0.35962625616687793,-0.8099998568854767,-0.6596365252236347,-0.45228488832131,-0.9129316688894216,-0.7493409615532021,-0.3897410982300129]]},{"inputs":[-0.9911067412662776,-0.2817544899448036,0.4297719056596387,0.9770044753460913,0.8103949847868873,0.8711440920285887,0.4941374505667946,0.9596723765708768],"outputs":[0.975221186534561,0.9924570235110851],"biases":[0.07166041507184095,0.010224595829214866],"weights":[[-0.7683210953429476,-0.5374059334918875],[0.42958843764649757,-0.9118928326827147],[0.12954843400558103,-0.08974651109283283],[-0.6513056591950397,0.12450524073841063],[0.9312106089264436,0.6218225621257383],[0.6835611572353981,0.4852259103278942],[0.8295173229283455,0.48521426643752674],[0.3102529599404953,0.7700696693018432]]}]}