{"layers":[{"inputs":[-14.17,0.02,0,161.84,0.48,6.27,0.15,0,115.36],"outputs":[-1,1,1,1,-0.999999703268409,1,1,1],"biases":[0.1903925033817524,0.14084968598984293,0.8022826093756223,-0.6324702907929152,-0.1953497779818556,0.6459571598652394,-0.8092968482247866,-0.14243910256818682],"weights":[[-0.7779176418478846,-0.6614591587383911,0.34763514570774623,0.6559356250685062,-0.534492818058268,-0.9183784612368622,0.7831986129174084,0.5059872732416455],[-0.47055231829432476,0.8981991597003942,-0.8537468809231905,-0.5746908800713433,-0.8490154810557162,-0.9181919744007567,-0.7053724164923554,0.3132159566360193],[0.8942573429249867,0.7904897893752385,-0.3328273301174165,-0.9240117862931299,-0.6664151814501844,-0.47373805039404626,-0.2135604089342067,0.6133328873275206],[-0.9008414425410285,0.7272458815594378,-0.18638180826655404,0.6836162812958202,-0.4560936775646005,0.9190153505221708,0.6504003798560487,0.9639793526039107],[-0.06017205968301642,0.5965179386708135,-0.6813266020595079,0.5909831969771098,0.20485423565760819,0.6059615837614447,-0.026651419673162646,-0.009399679750764278],[-0.8489917340527597,-0.269142397537911,-0.6856594623140979,-0.5532111997982794,-0.6169576942613739,-0.33184263444450224,-0.2847926106014582,-0.16638194843284015],[0.6032352911339056,-0.0694317726822482,0.8619168210388062,-0.6065545844623021,-0.3566327404160248,0.32314877543287146,-0.8868652990356267,-0.6844487125171494],[-0.7839623064061638,0.4231462219857032,-0.16662663247548082,0.5039590322649778,0.9635147945411111,-0.2100157166445551,0.6496809107010333,0.13641281961526897],[0.8209419322630143,0.588555734139379,0.7732616522593903,0.9514857948843973,0.5410407837828823,-0.016636063222826625,-0.39429855660988267,0.7016766821372276]]},{"inputs":[-1,1,1,1,-0.999999703268409,1,1,1],"outputs":[-0.9983485049452979,0.5166033985187806],"biases":[-0.29343724329849685,0.23752141890597223],"weights":[[0.40033373130965844,-0.6878536667989636],[-0.07832044324037879,-0.6934623065032159],[-0.9117130872779984,-0.4172277580023387],[-0.019184265488298546,-0.8694500971027757],[0.06528117273060552,0.28595306122043107],[-0.7776779829107467,0.5204254014530427],[-0.6136907007999826,0.8790283596788484],[-0.3895590920554475,0.512959825814737]]}]}