{"layers":[{"inputs":[-5.22,0.05,1,-12.41,-0.06,1.57,0.07,0,8.22],"outputs":[-0.9999999999996557,0.3397259567256796,-0.9992140559805408,0.9964573089660738,-0.9357046561867373,0.9998972017422543,-0.9999355109156021,0.9440312716252699],"biases":[-0.12512917064109974,-0.03377203245521754,-0.11159998976509655,-0.2721699702324072,0.40051253300189105,-0.15817839394564404,0.10045286970730993,-0.295849886502761],"weights":[[-0.502581530526971,0.9015944607800086,0.39028956737439735,0.44383918976094083,-0.2534886245099104,0.4774431872727689,-0.8962347761780971,-0.7563159089892042],[-0.4296854427747223,0.7066141850769383,0.5580067342667361,0.8485073464499937,-0.24404287808969238,0.1444640088380411,0.3800737106543184,-0.2740873548247511],[-0.9395289099381667,-0.47587074806135776,0.6296855371223709,-0.9837700374594425,-0.4937422105906508,-0.7805571531558408,-0.3582793495553238,0.8901203285504677],[0.7361527256178797,-0.12149115654565135,0.3545109986146979,-0.27229529090238813,-0.16760108715867483,-0.7301855362486611,0.5086969137701174,0.006179077360155993],[0.4273464697346321,0.15138510267902827,0.7138202941992584,0.18129987081162868,-0.5667430790919008,-0.8540686279392262,-0.9008569740205163,0.25418636451609666],[-0.216148913830275,-0.21710990518528428,0.8511065479572588,0.5380704389220878,0.5432669117515276,0.17296545272380826,0.4172490192791867,-0.3864759099326953],[-0.09536354967103877,-0.7855375476514719,0.7249563310727631,-0.4416960224923976,-0.3978662269789557,0.0273415654615361,-0.7113814960962004,-0.5629295093746474],[-0.9505608112847486,-0.04174407166662242,-0.10329892228199622,0.12647676992494672,0.8630600110282565,0.15513650467756657,-0.9777869053975228,-0.7248914946865321],[-0.8181530745959851,0.5391296700170249,0.07615116592348548,0.3059997857045653,-0.7127933131522828,-0.12465103918001663,-0.4813861886242208,-0.24532437517639183]]},{"inputs":[-0.9999999999996557,0.3397259567256796,-0.9992140559805408,0.9964573089660738,-0.9357046561867373,0.9998972017422543,-0.9999355109156021,0.9440312716252699],"outputs":[-0.9716267493336382,-0.998558960564716],"biases":[-0.4234540522524317,-0.47846049183978057],"weights":[[0.631787714810244,0.6171108807609307],[-0.06926448143787534,0.4099591302239869],[-0.9772393929994392,0.6306141200151703],[0.2779443606666194,-0.327208236634855],[0.9361304101869425,0.8633066692708811],[-0.5216076937201977,-0.06470370678919535],[0.5657478104262483,0.9474850448744156],[-0.3517203872539736,0.12179439325770591]]}]}