{"layers":[{"inputs":[-0.3,0.01,1,-0.32,0.05,-0.02,0.02,1,-2.32],"outputs":[-0.7063857716719197,-0.777840393983421,-0.644577246558808,0.13617736205424544,0.9814226750151545,-0.9577531077400988,-0.9960816918220498,-0.7962229685960389],"biases":[0,0,0,0,0,0,0,0],"weights":[[-0.4780233352507688,-0.42083061053946746,-0.612121051802756,0.043624399293473726,0.7780385833680312,0.006174779300090805,0.015546056099213335,0.7954079853109515],[-0.8425415902559226,-0.35820111277833755,-0.5525671250481099,-0.07851097121462347,-0.6553772979728159,0.9589234919474059,-0.5973899614389904,-0.9576976780191799],[-0.6208505570923086,0.01902501984525884,-0.38837504700697734,-0.6345835003184943,-0.40976186562121875,-0.5092336278456804,-0.7507544031639557,0.9089253467894469],[0.05140505465136558,0.7498146716754754,-0.7707392534144399,-0.9016914831419016,-0.1275700345615145,-0.8199335446595906,-0.7227484324416062,-0.5219299707026086],[-0.16210688180025024,-0.7141867998111704,-0.008044435475944578,-0.16520996324954096,-0.4496006198989071,-0.8931848695317122,-0.3614842645851408,0.10444302976500497],[0.13100511964934958,0.2602423996039058,-0.5496544761711406,-0.40856937752413547,0.9464057788317422,-0.5993338806094535,-0.8109643884495124,-0.9034161203030733],[-0.9405798726162975,0.3532792692987634,-0.6027809153490136,0.32188039163699367,0.828303920042833,-0.664605757364598,0.8042934295684745,-0.8692248197021533],[-0.990161188833707,-0.7842945955801963,-0.6064016439514326,-0.30971325780378844,0.6866878847337254,0.09396291125651768,-0.5784408020915288,-0.591144191427202],[-0.27676025293528106,0.05322740793937486,0.08382375629265582,-0.34496036199999747,-0.9835660797833863,0.7443496124038651,0.8716888900952187,0.5735831202415915]],"velocity":[[0,0,0,0,0,0,0,0],[0,0,0,0,0,0,0,0],[0,0,0,0,0,0,0,0],[0,0,0,0,0,0,0,0],[0,0,0,0,0,0,0,0],[0,0,0,0,0,0,0,0],[0,0,0,0,0,0,0,0],[0,0,0,0,0,0,0,0],[0,0,0,0,0,0,0,0]]},{"inputs":[-0.7063857716719197,-0.777840393983421,-0.644577246558808,0.13617736205424544,0.9814226750151545,-0.9577531077400988,-0.9960816918220498,-0.7962229685960389],"outputs":[0.9067986889933268,-0.9868093558179744],"biases":[0,0],"weights":[[0.37204636019145854,-0.3769530866259192],[0.6375952230446145,0.10407187329401824],[0.5327331060478455,0.9583980327526964],[-0.9515871473771069,0.5070624914724124],[0.9302909837812932,-0.6580071186658945],[-0.8137751119067551,0.5524604270731333],[-0.4089296806726592,0.5155955076933587],[-0.8053093336061474,0.5721030117674677]],"velocity":[[0,0],[0,0],[0,0],[0,0],[0,0],[0,0],[0,0],[0,0]]}],"inertiaWeight":0.9,"cognitveWeight":0.5,"socialWeight":1.5}