{"layers":[{"inputs":[-6.17,0.48,1,-7.74,0.01,-5.15,0.03,0,16.6],"outputs":[1,0.383112906081813,-0.9999999999990717,0.9999991365014421,-0.4996964504313604,-1,-1,0.9999999999995711],"biases":[0.1891092379629691,1.5346512049257044,-0.8908007733623384,-0.2801366480488972,-0.591496706100546,-0.6830558923519632,0.4382035935102837,0.31904802908648316],"weights":[[-1.5523474373695056,1.1946720647600417,0.8191533696738952,-1.4023258495289002,0.25903832712403246,0.7372345921841372,1.1962615906579155,0.7249703775274409],[0.03348362781382118,-1.017308701609731,-0.28652517483544754,1.9450260220891076,0.35188665511427925,-0.47251872187179017,-0.22818299554278557,0.07195198143281724],[0.7603687996209214,-0.6817237089889209,-1.1211631753767948,0.3633232239106525,0.432473288802453,-1.0262290525946987,0.09669577021106307,-0.04324111723092704],[-0.31514963094374504,-0.12891832103791442,-0.669293410185226,0.4313474033591008,-0.5813164164296535,1.7354482492743941,-0.06443028058142412,-0.38189941453989806],[-0.4702561069095905,1.2245522020772248,0.7077721916452697,-0.1117566610373023,0.44915426474931386,-0.08477661866202746,0.6604378837769908,0.08490812985702284],[0.23130995418367195,0.5087584037208908,1.5249112072689304,0.6154230189288266,-0.3069832538027871,-0.4676633886517797,0.9190761636281755,-0.3702742665821049],[-0.05024672735502548,0.2437808403873232,1.1699277270101658,0.01960025199541058,-0.2366311092812289,1.3455496604467232,0.9557847677904663,0.14357207174506545],[-0.3295428384942912,1.0812621945464955,-0.8931755150232168,-0.13885138150152238,-0.6472730826508788,-0.38843545605003066,2.2822737209778396,-0.0559197776413414],[1.1078782029524608,0.5429475496003463,-0.26294183542248756,0.25103298973647964,-0.30350979649770615,-0.7238865966915747,-0.6439292894739669,0.836149939703746]],"velocityW":[[0.000007356030190358182,7.697074196214981e-7,-4.5315742717181047e-7,0.0000016125729106983086,-1.4210422583019278e-7,-0.0000023221356775633056,5.551410093134317e-7,0.0000033738029468711332],[0.000007023137026930377,1.4723980866885785e-7,-2.255447532522081e-7,0.0000011700635346013624,-0.000001664143983697856,8.866724804294066e-7,1.984341568475508e-7,-4.2952760193824594e-8],[-0.000001542792512175347,3.5046918037485134e-7,-0.000002208485263893557,0.000006993708628328986,-7.359436378623129e-7,-0.0000011251578577473935,-2.3531987110328315e-7,0.000001642934034746783],[-6.074258173713615e-7,-2.7327406252552112e-8,-7.881589172363458e-7,2.398770588900144e-7,5.60599200891603e-7,-0.000007014372545690127,-0.0000012397235577307895,5.264425896978165e-7],[-0.0000010789454914997203,1.8503411506486404e-7,-4.2837580380254503e-7,1.2820278306976794e-7,0.0000011392290604637294,-2.808196616605328e-7,-3.121395017953409e-7,0.000005008069709112442],[-0.000012385171835150414,-7.619911476726461e-7,-2.574106153360164e-8,-7.063998569498466e-7,0.0000014624994681517628,0.000013533424392678027,-1.8243934164207737e-7,-0.0000018227784265081726],[-0.0000029483460511727935,-4.297205482144261e-7,1.822921578565221e-8,0.00000221626436972376,8.77946897613987e-7,-0.0000022413235416228383,-2.96670212252107e-7,4.95665039569791e-8],[-0.00001348789446618123,-2.3666833194601033e-7,-0.000023451264855973026,-0.0000014104219926527422,0.0000022766197998985443,-4.2670401357905305e-8,-9.599267198406016e-7,-0.000003288709415995759],[5.51565949395636e-7,-5.706339323280997e-7,-0.0000029168347259044205,0.0000010142345641824644,0.000002812944373157086,5.045315462589552e-7,-0.000011941264705317188,-0.000004487757308782191]],"velocityB":[-8.288229819292448e-9,5.6697329521188005e-8,6.131554029639989e-7,6.695098498728634e-7,5.215720944086623e-7,-4.82332478487809e-7,-0.0000015616643670523566,0.000005090694059441849]},{"inputs":[1,0.383112906081813,-0.9999999999990717,0.9999991365014421,-0.4996964504313604,-1,-1,0.9999999999995711],"outputs":[-0.9452024354039552,-0.9508445205666681],"biases":[0.24176877781565143,-0.3643912356310868],"weights":[[0.4548261174192394,0.1599561783628686],[-0.243453830713083,-1.1080042734834898],[1.2903872716283524,-0.22107033371889773],[-0.0011352497709694812,0.25942718581567087],[-0.3430608981288894,0.9100829822248454],[-1.135349549603579,0.8367342435041747],[1.3944303878355429,0.5581145540499002],[-1.0088853347047941,0.15752787178384553]],"velocityW":[[1.1408069311370024e-7,-6.176747035657572e-8],[0.0000019449676348968073,0.000005723010395455662],[3.960056341194217e-7,-7.132024768735987e-9],[-0.0000013973468558225198,-9.543964154805094e-7],[0.000005310130217086027,-2.3203946683994262e-7],[0.0000016087952845231631,0.0000017848388594038804],[-0.000004407933836156629,0.0000028529236842845317],[-1.0760042902845293e-7,-1.3759022322922016e-7]],"velocityB":[0.0000038939472855482256,0.000013308667017303389]}],"inertiaWeight":0.9,"cognitveWeight":0.25,"socialWeight":0.25}