{"layers":[{"inputs":[-0.19,0.02,1,-1.05,0.06,0.22,0.03,1,-0.53],"outputs":[0.9334412739440352,-0.3450587021766598,-0.9082858630820849,-0.19463234865062948,-0.523653734945633,-0.8131717988835272,0.9491529614821459,-0.04823384359407615],"biases":[0.11285692844880613,0.4797277268353324,-0.6608433738284045,0.5250141559733499,-0.4047037889999472,0.09105531664803879,-0.4357023689273949,0.19330971229503158],"weights":[[0.9132006903028387,-0.8781405603977115,-0.46114575656335255,0.6290416258428846,0.8514327233039509,0.8679369297599724,0.11846093772531985,-0.2709540718494021],[-0.28973101333729767,-0.14203310050317874,0.2750567268887636,0.6945437729891535,0.21929175679816515,-0.5106246851219156,0.08222135365088734,0.81163417031369],[0.8056681417336597,-0.4978743607251843,-0.5947345503856964,-0.23137011410550157,-0.358651296184334,-0.2822967029433001,0.5329478090846167,-0.2473551188568477],[-0.6907314485615728,-0.5005764861712225,-0.24353880342025924,0.9121760110027273,-0.9540137357005238,0.22084499469960406,-0.9468590590497321,-0.7485773105179354],[-0.16783482699299723,0.6727415411023618,-0.3834224407967697,-0.5849606869045236,0.01839010367609939,-0.036184889964176126,0.9036496890152135,0.12047287656151084],[-0.9159828300346962,-0.22695910222728966,0.5404995656640996,0.6501315686645546,-0.0750016266595459,0.1525179694048684,-0.29417187917289755,-0.039740116233156986],[-0.9252723094583923,0.02728919937769314,0.3104007720012385,0.09286353267491565,0.3929944920539241,0.7749119836556115,0.28987723886643924,-0.6576582694006716],[0.5535569041870687,-0.5731117758580502,-0.966062044878305,0.23959815396780737,-0.8201972561322113,-0.06371605331632457,0.7692716021021364,-0.7538776743887698],[0.17776739975020872,0.8479788190179369,-0.4715976416555345,-0.4194433985884394,-0.30466167073976935,0.9980882374503337,0.028092904979944766,0.1374040611155669]]},{"inputs":[0.9334412739440352,-0.3450587021766598,-0.9082858630820849,-0.19463234865062948,-0.523653734945633,-0.8131717988835272,0.9491529614821459,-0.04823384359407615],"outputs":[0.8535467599963507,0.8325506854332589],"biases":[0.4347057978979678,0.856221139883993],"weights":[[-0.34688423272387814,-0.9437706991726],[-0.7902875855157028,-0.5584862470495482],[0.358774083344898,0.008473954066042566],[0.8618668292767246,-0.3434907626481265],[-0.7373735371887027,0.20147197750805113],[-0.8362966053197116,-0.885911984978069],[0.32694750583930876,0.33444084887026504],[-0.05352794182008802,-0.7655264966539024]]}]}