{"layers":[{"inputs":[-6.17,0.5,1,-8.67,-0.2,-4.76,0.16,0,35.05],"outputs":[1,-0.9902203723561225,0.999998579723887,1,-1,1,1,0.4199911511299398],"biases":[-0.669592204697647,0.9903454271911416,-0.7577345448270578,0.5549057781914164,0.14051100659239202,-0.38315249205754975,-0.29849195865009204,0.5760710100179947],"weights":[[-0.9955270658202586,-0.19479210562738736,0.5759811139739708,-0.5497021533862774,-0.398406809941545,-0.5688757591856151,0.47493663975187417,0.22428610112002856],[-0.2960985951114945,0.7980273072961643,0.4721975329305872,-0.5420277466021246,-0.7086578982276688,-0.9439070611445071,0.2740418253647432,0.4984337274297377],[-0.6678903743038833,-0.6688079372565587,0.9377176807056133,0.45813011088337285,0.1492860205611981,0.2719131052697641,-0.46947825464451887,-0.26400105201506374],[-0.6368359900114733,0.6230713403206911,0.1282362143482736,-0.7277036905801371,-0.6725743932709882,-0.5032858022065816,-0.7729367964044025,0.6324184636714856],[0.4671924829118881,-0.5053131322393742,-0.3133510927079728,-0.011890303913494993,-0.9130326582357875,0.3800629819175976,0.056121056102089284,0.6641586390894201],[0.4347048075126412,0.38226367003754724,-0.6259712295921607,-0.6874518678514168,0.6872072485844503,-0.19974058828540242,0.2113911308805143,0.07786336580067088],[0.2946766933257807,0.8208765722422959,0.8897161440226831,-0.1937849847764439,0.8558647256644587,0.7506706308943176,-0.7066242282224464,0.2831526468163603],[-0.7496017808467625,0.8685303254211778,0.7322662462095777,-0.1943722563210719,-0.822733381724309,-0.25463374258413474,-0.20106270779117175,-0.2116560656060118],[0.8123330909339121,0.06872846379360409,0.23234763365912103,0.21024911324097717,-0.9857232055598733,0.5063353186675226,0.9680935323896742,0.20574792317270596]]},{"inputs":[1,-0.9902203723561225,0.999998579723887,1,-1,1,1,0.4199911511299398],"outputs":[-0.9849395586435752,0.3066855803670646],"biases":[-0.8239517657075557,-0.036256762489689454],"weights":[[-0.16009251159849214,-0.25196874100856936],[-0.09842518573927483,-0.8828329249789943],[-0.943016721033842,0.4682094327659376],[-0.4109916763784076,-0.009488481435500518],[0.7169166219347165,-0.27437828362257477],[-0.025373711295852974,-0.10210241337834125],[0.4998109295976576,-0.7692669647535424],[0.10103071756167337,-0.3114829406138746]]}]}